9.985566884279251099e-02 5.892729386687278748e-03 9.232431650161743164e-02 -5.526930466294288635e-02 -3.818099200725555420e-02 7.295782677829265594e-03 -1.100479885935783386e-01 2.166907675564289093e-02 -7.217886298894882202e-02 -1.031952425837516785e-01 3.547898679971694946e-02 5.561517318710684776e-04 2.521873824298381805e-02 -1.122808922082185745e-02 -3.436316549777984619e-02 -7.917113602161407471e-02 3.114554286003112793e-02 2.296576648950576782e-02 5.063340440392494202e-02 1.552421506494283676e-02 9.715672582387924194e-02 -6.262186169624328613e-02 -6.408861279487609863e-02 5.650906637310981750e-02 1.409519929438829422e-03 8.864274621009826660e-02 -2.352436445653438568e-02 -6.418354064226150513e-02 -9.746674448251724243e-02 -9.863518923521041870e-02 -2.864312008023262024e-02 -1.139922998845577240e-03 -4.133884608745574951e-02 6.149119511246681213e-02 -3.965114057064056396e-02 -7.618022710084915161e-02 -3.831477463245391846e-02 -9.247461706399917603e-02 -1.069319397211074829e-01 -3.839041292667388916e-02 2.014004997909069061e-02 -1.251502633094787598e-01 3.655431419610977173e-02 1.941048540174961090e-03 -7.618689537048339844e-02 1.038488000631332397e-01 -5.138280615210533142e-02 -5.632999539375305176e-02 -5.682173185050487518e-03 3.646703809499740601e-02
1.983590051531791687e-02 -8.980541676282882690e-02 -9.807486832141876221e-02 -2.476458903402090073e-03 4.364815726876258850e-02 -8.744863793253898621e-03 1.043371483683586121e-01 -4.986144974827766418e-02 -3.076489455997943878e-02 -4.361076746135950089e-03 -8.256639540195465088e-02 1.134271640330553055e-02 -5.973441898822784424e-02 4.170427471399307251e-02 -7.394503057003021240e-02 6.525672972202301025e-02 -7.392852753400802612e-02 -6.851022690534591675e-02 8.131606876850128174e-02 1.285283267498016357e-01 2.199577167630195618e-02 -1.125711277127265930e-01 5.978056415915489197e-02 -4.092132672667503357e-02 -6.888172030448913574e-02 -3.069042041897773743e-02 -2.994120679795742035e-02 -7.117881625890731812e-02 2.566527202725410461e-02 -3.310606628656387329e-02 -2.020095661282539368e-02 -5.393051728606224060e-02 -7.712939381599426270e-02 1.057403385639190674e-01 -6.904327124357223511e-02 1.128708943724632263e-02 3.982150182127952576e-02 8.818907290697097778e-02 1.094471067190170288e-01 -1.414850587025284767e-03 -5.951603502035140991e-02 -8.393698185682296753e-02 -2.788926661014556885e-02 6.008260697126388550e-02 -4.874656721949577332e-02 -3.707889094948768616e-02 -5.045469105243682861e-02 -8.432932943105697632e-02 2.835101634263992310e-02 -3.855434805154800415e-02
-6.406719237565994263e-02 -3.116914257407188416e-02 4.394008964300155640e-02 1.134660374373197556e-02 -1.288391053676605225e-01 6.446372717618942261e-02 -7.458787411451339722e-02 5.319387465715408325e-02 1.058454290032386780e-01 1.283341646194458008e-01 7.665463723242282867e-03 -3.308684378862380981e-02 -8.090265840291976929e-02 -9.641490876674652100e-02 -7.636040449142456055e-02 -1.071981042623519897e-01 -4.852949641644954681e-03 6.103902682662010193e-02 -8.519022166728973389e-02 -1.247322708368301392e-01 -1.181955710053443909e-01 5.488529056310653687e-02 3.101496491581201553e-03 1.250820308923721313e-01 8.545645326375961304e-02 -1.310613099485635757e-02 2.761421492323279381e-04 1.037344560027122498e-01 1.983179012313485146e-03 1.048039346933364868e-01 5.025203898549079895e-02 8.170015364885330200e-02 -1.585090160369873047e-02 -1.781922765076160431e-02 6.188190728425979614e-02 -6.925310473889112473e-03 9.281291626393795013e-03 1.289165951311588287e-02 -7.537329941987991333e-02 5.556194856762886047e-02 9.660919755697250366e-02 8.909980952739715576e-02 -4.925267398357391357e-02 -1.032301336526870728e-01 5.194319784641265869e-02 1.105288602411746979e-02 4.482965543866157532e-02 7.760003209114074707e-02 -1.916582928970456123e-03 1.376677863299846649e-02
-4.353005066514015198e-02 4.635069984942674637e-03 -5.544485896825790405e-02 6.189151480793952942e-02 2.672648988664150238e-02 1.906876685097813606e-03 -1.016679331660270691e-01 4.589384794235229492e-02 9.281630814075469971e-02 1.082934513688087463e-01 5.767620727419853210e-02 -3.487269580364227295e-02 2.519041672348976135e-02 -5.311111360788345337e-02 2.720944024622440338e-02 2.007571049034595490e-02 7.084802538156509399e-02 8.898117393255233765e-02 -7.476823031902313232e-02 -8.845316618680953979e-02 -9.918241947889328003e-02 1.079279780387878418e-01 -1.205153763294219971e-02 6.869948469102382660e-03 -4.955555126070976257e-02 3.291568160057067871e-02 -8.280056715011596680e-02 6.341520696878433228e-02 -1.525819394737482071e-02 5.509866774082183838e-02 -6.930717080831527710e-02 3.187060728669166565e-02 7.111757248640060425e-02 -1.060159355401992798e-01 6.486321240663528442e-02 1.589835388585925102e-03 -8.375160396099090576e-02 -4.924583807587623596e-02 2.300727367401123047e-02 -6.297481805086135864e-02 5.810243636369705200e-02 -5.650432035326957703e-02 -5.868352204561233521e-02 -8.029551059007644653e-02 6.239947676658630371e-02 -1.134351566433906555e-01 4.952649772167205811e-02 4.291182756423950195e-02 -4.506802186369895935e-02 3.068471699953079224e-02
4.409085586667060852e-02 -9.587717801332473755e-02 -2.507707104086875916e-03 5.147900059819221497e-02 -5.591611936688423157e-02 -4.109773039817810059e-02 -2.092490904033184052e-02 -2.691239118576049805e-02 3.340661525726318359e-02 4.064071550965309143e-02 -9.538140892982482910e-02 6.253107637166976929e-02 -5.011555738747119904e-03 -2.288914658129215240e-02 -1.515271887183189392e-02 -3.005287796258926392e-02 -1.031000614166259766e-01 -5.634776875376701355e-02 4.588207602500915527e-02 -5.977182090282440186e-02 -5.848040804266929626e-02 -4.765866696834564209e-02 -4.309254512190818787e-02 7.583952695131301880e-02 4.698452353477478027e-02 -1.028746664524078369e-01 1.132883056998252869e-01 -1.178452372550964355e-02 8.843204379081726074e-02 -1.098238583654165268e-02 1.274549663066864014e-01 -2.738821879029273987e-02 -1.322939544916152954e-01 3.962136805057525635e-02 -3.989420458674430847e-02 -7.812227308750152588e-02 1.166034638881683350e-01 1.163429394364356995e-01 -2.484299987554550171e-02 1.300790309906005859e-01 -2.774196118116378784e-02 3.341327235102653503e-02 2.229326777160167694e-02 6.314029917120933533e-03 -7.216559350490570068e-02 7.278358936309814453e-02 -7.725657522678375244e-02 -5.258319526910781860e-02 1.249484419822692871e-01 -1.022704914212226868e-01
7.222547382116317749e-02 -1.086007952690124512e-01 -7.243432849645614624e-02 2.672205213457345963e-03 9.803269058465957642e-02 -3.764533996582031250e-02 6.466318666934967041e-02 -7.820401340723037720e-03 -8.701530098915100098e-02 -6.204530969262123108e-02 -3.290041536092758179e-02 3.044231049716472626e-02 5.353679507970809937e-02 4.271365329623222351e-02 1.884875632822513580e-02 8.826522529125213623e-02 -6.441596895456314087e-02 -7.248796522617340088e-02 3.892915695905685425e-02 1.124938800930976868e-01 -2.898107096552848816e-02 -5.444478243589401245e-02 -2.905420772731304169e-02 -8.400322496891021729e-02 -8.074744045734405518e-02 -5.026218947023153305e-03 9.932269155979156494e-02 -3.711270168423652649e-02 9.583228826522827148e-02 -2.966498397290706635e-02 1.226205602288246155e-01 -5.753582715988159180e-02 1.520358491688966751e-02 8.328553289175033569e-02 -1.365930866450071335e-02 -1.099038645625114441e-01 3.819381818175315857e-02 2.120995707809925079e-02 -3.572713956236839294e-02 1.923830620944499969e-02 -4.790703952312469482e-02 6.705161649733781815e-03 9.182550758123397827e-02 2.301383763551712036e-02 -5.078723654150962830e-02 -2.989978529512882233e-02 -3.373379632830619812e-02 -4.507132619619369507e-02 4.061886295676231384e-02 -3.676829859614372253e-02
7.055844366550445557e-02 -6.274773925542831421e-02 -1.023385003209114075e-01 1.043918505311012268e-01 9.682535380125045776e-02 -1.046740561723709106e-01 -5.505786463618278503e-02 -5.080614238977432251e-02 2.270277217030525208e-02 2.641131542623043060e-02 -4.934145137667655945e-02 6.764890998601913452e-02 9.646398574113845825e-02 1.997492834925651550e-02 8.672481775283813477e-02 8.764359354972839355e-02 -3.285607323050498962e-02 -3.879211470484733582e-02 5.947095155715942383e-02 -1.366801280528306961e-02 -3.565967082977294922e-02 -2.483014483004808426e-03 -5.484767630696296692e-02 -4.396645352244377136e-02 -9.198058396577835083e-02 -6.303349137306213379e-02 4.077541455626487732e-02 -5.143434554338455200e-02 6.467457115650177002e-02 -5.923841893672943115e-02 7.224353495985269547e-03 -7.622404396533966064e-02 -4.957286641001701355e-02 -3.311641514301300049e-02 -5.188968405127525330e-02 -6.644533574581146240e-02 3.179161250591278076e-02 5.689818039536476135e-02 8.067665994167327881e-02 1.200111210346221924e-02 -6.915816664695739746e-02 -1.079301834106445312e-01 1.403130404651165009e-02 2.866184897720813751e-02 -5.393368750810623169e-02 -4.931151121854782104e-02 -7.948696613311767578e-02 -8.473075181245803833e-02 8.856404572725296021e-02 -8.662006258964538574e-02
9.079644829034805298e-02 2.618397027254104614e-02 -1.214480325579643250e-01 1.403094083070755005e-01 8.450662344694137573e-02 -6.052755564451217651e-02 8.625985682010650635e-02 -4.066050751134753227e-04 -2.143135759979486465e-03 -1.041571646928787231e-01 3.437844105064868927e-03 -1.033106818795204163e-02 -5.692736059427261353e-02 8.772727847099304199e-02 1.293703913688659668e-01 1.198265627026557922e-01 -5.026583373546600342e-02 -4.500127956271171570e-02 4.722103010863065720e-03 -1.059098169207572937e-02 1.138010248541831970e-01 -9.977143257856369019e-02 -1.100552007555961609e-01 -8.260539174079895020e-02 -6.888221949338912964e-02 -3.288462758064270020e-02 6.989466492086648941e-03 -9.060410410165786743e-02 1.373403668403625488e-01 -8.587893098592758179e-02 -6.233615428209304810e-02 -9.057828038930892944e-02 -1.948748715221881866e-02 -2.577042393386363983e-02 -1.845539920032024384e-02 -1.363074779510498047e-02 9.508519619703292847e-02 4.164194315671920776e-02 -7.198915118351578712e-04 6.139805912971496582e-02 -4.790252447128295898e-02 6.427631527185440063e-02 3.760930895805358887e-02 3.470498323440551758e-02 -1.427605864591896534e-03 1.102045476436614990e-01 -3.009557025507092476e-03 -4.870366677641868591e-02 -1.986708864569664001e-02 9.520065970718860626e-03
-1.183951832354068756e-02 5.455453321337699890e-02 1.938698440790176392e-02 -1.333280205726623535e-01 -1.383648663759231567e-01 -1.188599914312362671e-01 -3.393958881497383118e-02 -1.087282896041870117e-01 -4.626908153295516968e-02 -6.136353313922882080e-02 -3.954919800162315369e-02 1.020597070455551147e-01 6.647919863462448120e-02 9.636948257684707642e-02 -9.982375428080558777e-03 -5.024662986397743225e-02 1.145196408033370972e-01 -5.665563791990280151e-02 -4.655734635889530182e-03 -1.871699094772338867e-02 5.311354994773864746e-02 -2.831528894603252411e-02 3.417463973164558411e-02 5.477329716086387634e-02 1.161234974861145020e-01 -6.653714925050735474e-02 4.283227026462554932e-02 4.611865431070327759e-02 -7.932288944721221924e-02 -1.247616484761238098e-02 -9.172344207763671875e-02 1.028897836804389954e-01 -1.267751585692167282e-02 -6.681092083454132080e-02 1.811627298593521118e-02 5.420841276645660400e-02 -5.625687539577484131e-03 9.486902505159378052e-03 7.879557088017463684e-03 8.696155995130538940e-02 -6.047501787543296814e-02 -2.105231210589408875e-02 8.478485792875289917e-02 1.275761574506759644e-01 8.341007865965366364e-03 4.220309481024742126e-02 2.384247817099094391e-02 1.309612486511468887e-02 5.492775887250900269e-02 -2.891970425844192505e-02
4.617087170481681824e-02 4.641714692115783691e-02 2.010278962552547455e-02 -2.516682818531990051e-02 9.453868120908737183e-02 8.289159159176051617e-04 9.139612317085266113e-02 -3.643213957548141479e-02 -1.601666957139968872e-02 7.057455368340015411e-03 -4.790787771344184875e-02 6.076434627175331116e-02 6.888963282108306885e-02 6.116306781768798828e-02 7.116783410310745239e-02 -3.383421897888183594e-02 -8.693391084671020508e-02 -6.833859533071517944e-02 1.251806616783142090e-01 1.103048846125602722e-01 4.250952228903770447e-02 -1.469851355068385601e-03 -2.548667602241039276e-02 3.716698288917541504e-02 5.252083018422126770e-02 -4.990473762154579163e-02 6.699912995100021362e-02 -6.190063431859016418e-02 6.034986302256584167e-02 -2.829811349511146545e-02 1.057226359844207764e-01 -1.216691583395004272e-01 -4.621993377804756165e-02 -3.220684826374053955e-02 -8.829384297132492065e-02 3.660073131322860718e-02 1.137408167123794556e-01 6.640032678842544556e-02 1.024501845240592957e-01 -1.035903766751289368e-02 -6.413374096155166626e-02 -2.534346282482147217e-02 1.123501062393188477e-01 7.519157975912094116e-02 -3.180620074272155762e-02 -4.387393593788146973e-02 -8.624991029500961304e-02 -7.939120382070541382e-02 4.615373909473419189e-02 -1.033461838960647583e-01
1.900777406990528107e-02 1.256681699305772781e-02 8.740291744470596313e-02 3.182216361165046692e-02 -6.591810286045074463e-02 -4.555492103099822998e-02 -5.459295958280563354e-02 2.518367720767855644e-03 1.014319211244583130e-01 -8.779211342334747314e-02 3.437389060854911804e-02 1.300125569105148315e-01 4.842260852456092834e-02 -7.714150100946426392e-02 4.820454865694046021e-02 -4.184465110301971436e-02 8.822460472583770752e-02 -2.079201117157936096e-02 1.288484688848257065e-02 3.066218644380569458e-02 -2.979474700987339020e-02 -8.385610580444335938e-02 6.711503118276596069e-02 5.093243718147277832e-02 -6.181057542562484741e-02 1.459410972893238068e-02 1.280139107257127762e-02 -2.861668542027473450e-02 -7.149013876914978027e-02 -1.150872856378555298e-01 -4.598351195454597473e-02 -3.296763077378273010e-02 2.201247587800025940e-02 2.262764424085617065e-02 2.380974031984806061e-02 3.411204321309924126e-03 -2.265167981386184692e-02 -1.034555733203887939e-01 2.239475958049297333e-02 -4.917587339878082275e-02 -4.461196437478065491e-02 7.156855612993240356e-02 7.266599684953689575e-02 4.503969103097915649e-02 1.194908656179904938e-02 7.250922918319702148e-02 1.989987911656498909e-03 2.559107914566993713e-02 -1.414941530674695969e-02 4.966222867369651794e-02
-4.693344607949256897e-02 -4.976834356784820557e-02 -2.115400135517120361e-02 -4.434027150273323059e-02 3.181878477334976196e-02 7.201071083545684814e-02 5.508426576852798462e-03 8.769752830266952515e-02 -1.721835322678089142e-02 3.403269499540328979e-02 7.400521636009216309e-02 -7.934314012527465820e-02 -2.650670148432254791e-02 -3.501216694712638855e-02 -4.967664927244186401e-02 1.012108940631151199e-02 3.266382962465286255e-02 5.111142247915267944e-02 -9.896189719438552856e-02 4.829822853207588196e-02 -9.414502233266830444e-02 5.165366828441619873e-02 1.896519958972930908e-02 -2.835426293313503265e-02 -4.412356391549110413e-02 9.138020128011703491e-02 -2.100140228867530823e-02 8.301054686307907104e-02 4.429127089679241180e-03 9.276599436998367310e-02 4.718464985489845276e-02 5.603124946355819702e-02 1.479098200798034668e-01 1.698045805096626282e-02 1.049218624830245972e-01 -4.059173911809921265e-02 -8.226118236780166626e-02 -8.817607909440994263e-02 -9.699866920709609985e-02 -6.584243476390838623e-02 8.835306018590927124e-02 6.569750607013702393e-02 1.988076791167259216e-02 -9.868592768907546997e-02 6.686612218618392944e-02 -9.654161334037780762e-02 8.908803761005401611e-02 9.490865468978881836e-02 -9.089675545692443848e-02 8.490565419197082520e-02
-8.705829828977584839e-02 3.732178360223770142e-02 2.201660349965095520e-02 4.864435642957687378e-02 -8.904075622558593750e-02 5.846276879310607910e-02 -3.396974131464958191e-02 -1.076155900955200195e-01 2.439597621560096741e-03 -6.265760213136672974e-02 -6.425204128026962280e-02 3.898565471172332764e-02 -5.540410429239273071e-02 3.142942488193511963e-02 -7.149894256144762039e-03 -7.822532951831817627e-02 -4.505292046815156937e-03 8.225912600755691528e-02 -4.171314835548400879e-02 -1.355546526610851288e-02 4.165921825915575027e-03 2.588364481925964355e-02 -5.880267545580863953e-02 -6.303101778030395508e-02 2.296120859682559967e-02 -5.730351433157920837e-02 4.226416815072298050e-03 6.731159240007400513e-02 -1.297648400068283081e-01 -1.565974205732345581e-02 -1.086643710732460022e-02 -4.306001588702201843e-02 -2.059687487781047821e-02 7.271259278059005737e-02 -1.009264886379241943e-01 2.181693352758884430e-02 -1.054642796516418457e-01 -1.659293472766876221e-02 7.918670773506164551e-02 5.519122630357742310e-02 5.675416067242622375e-02 -3.450481966137886047e-02 -2.907402627170085907e-02 -2.477947622537612915e-02 -7.723341882228851318e-02 7.059676945209503174e-02 -7.183894515037536621e-02 -5.247389152646064758e-02 1.549600996077060699e-02 -5.304272845387458801e-02
-7.892148196697235107e-02 1.086991354823112488e-01 9.715427458286285400e-02 -1.136304214596748352e-01 -5.358973867259919643e-04 3.815885260701179504e-02 -5.838609859347343445e-02 2.647708915174007416e-02 -4.380077496170997620e-02 7.763822376728057861e-02 2.578615024685859680e-02 -8.095385879278182983e-02 7.811362389475107193e-03 -1.099885106086730957e-01 -1.054071635007858276e-01 4.667751863598823547e-02 5.595105234533548355e-03 3.336169198155403137e-02 -4.536030441522598267e-02 -9.872648864984512329e-02 -1.099660620093345642e-02 8.314931392669677734e-02 6.954212486743927002e-02 -6.385672837495803833e-02 1.977489143610000610e-02 2.466829866170883179e-02 -5.233322829008102417e-02 2.690998464822769165e-02 -3.604034706950187683e-02 5.301788076758384705e-02 5.324167665094137192e-03 1.371503323316574097e-01 2.794148400425910950e-02 1.022547017782926559e-02 3.515673056244850159e-02 9.406431019306182861e-02 -5.675420537590980530e-02 -3.135457262396812439e-02 -1.014147773385047913e-01 -8.840513974428176880e-02 3.441457077860832214e-02 6.068698689341545105e-02 -9.596009552478790283e-02 -9.386573918163776398e-03 1.519125327467918396e-02 -1.512417942285537720e-02 5.944698303937911987e-02 9.994633495807647705e-02 -4.216176643967628479e-02 5.592324212193489075e-02
-2.279843948781490326e-02 9.175514429807662964e-02 -6.393363326787948608e-02 8.825100213289260864e-02 1.688043773174285889e-02 3.743631392717361450e-02 3.023163601756095886e-02 8.877139538526535034e-02 5.995907261967658997e-02 -1.391214784234762192e-02 1.048118472099304199e-01 -1.105045825242996216e-01 -1.153062358498573303e-01 1.636256463825702667e-02 6.039734184741973877e-02 3.557238727807998657e-02 3.852735087275505066e-02 6.787171959877014160e-02 -1.080367192625999451e-01 -7.070595026016235352e-02 4.774496331810951233e-02 1.145498175173997879e-02 -5.912835896015167236e-02 -2.205169200897216797e-02 -2.164583466947078705e-02 6.205501779913902283e-02 -1.036579608917236328e-01 2.880719862878322601e-02 4.512039944529533386e-02 3.342588245868682861e-02 -1.279125809669494629e-01 1.146123930811882019e-02 9.616991877555847168e-02 -8.552347123622894287e-02 8.728106319904327393e-02 5.367567762732505798e-02 -1.470277830958366394e-02 -7.175251096487045288e-02 -6.152431294322013855e-02 -1.882296241819858551e-02 6.744905561208724976e-02 1.084945127367973328e-01 -2.651913836598396301e-02 -5.857561528682708740e-02 1.139430552721023560e-01 4.070657119154930115e-02 1.081526428461074829e-01 6.284769624471664429e-02 -1.413219869136810303e-01 1.158651635050773621e-01
3.162655606865882874e-02 4.874287918210029602e-02 5.271195992827415466e-02 -8.810178190469741821e-02 6.367295980453491211e-02 -6.184579804539680481e-02 -1.369338389486074448e-02 -5.836986377835273743e-02 -1.043373122811317444e-01 -5.793680436909198761e-03 -8.085332810878753662e-02 1.374715287238359451e-02 8.290952444076538086e-02 -3.933833539485931396e-02 -5.372013524174690247e-02 1.314364075660705566e-01 -8.529573678970336914e-02 -7.698597759008407593e-02 8.152474462985992432e-02 -5.512985959649085999e-02 5.103507265448570251e-02 -1.496216561645269394e-02 2.435909956693649292e-02 -1.172679290175437927e-01 -1.196843944489955902e-02 -6.868220865726470947e-02 7.114166021347045898e-02 -8.711671084165573120e-02 4.138913750648498535e-02 -5.140976980328559875e-02 7.622011005878448486e-02 4.410637915134429932e-02 -1.043104380369186401e-01 6.510742753744125366e-02 -5.725543946027755737e-02 3.562689945101737976e-02 3.679594397544860840e-02 8.219683170318603516e-02 -5.067941173911094666e-02 4.145592916756868362e-03 -9.169959276914596558e-02 5.260830745100975037e-03 -3.972695395350456238e-02 1.018958538770675659e-01 -8.756797015666961670e-02 6.059351190924644470e-02 -6.291953474283218384e-02 -2.729156427085399628e-02 9.274844080209732056e-02 -5.750907957553863525e-02
1.503491308540105820e-02 -8.011439442634582520e-02 7.754082232713699341e-02 2.902229130268096924e-02 -4.448382183909416199e-02 1.168839540332555771e-02 7.858894020318984985e-02 1.459525339305400848e-02 -9.698796272277832031e-02 -9.109919518232345581e-02 6.516344845294952393e-02 -4.001363739371299744e-02 6.279017031192779541e-02 9.819843620061874390e-02 1.135989949107170105e-01 -6.398402154445648193e-02 8.601245284080505371e-02 -1.602976582944393158e-02 1.400435063987970352e-02 1.421687472611665726e-02 1.038944721221923828e-01 7.733732461929321289e-02 6.476181000471115112e-02 2.986648306250572205e-02 9.329587221145629883e-02 7.117984443902969360e-02 5.226771160960197449e-02 -1.475682575255632401e-02 -5.715605616569519043e-02 3.365212678909301758e-02 -2.545214258134365082e-02 -1.154986792244017124e-03 1.525804214179515839e-02 -5.911400914192199707e-02 1.159894838929176331e-02 -1.005862802267074585e-01 -1.488408818840980530e-02 2.339298091828823090e-02 3.203330188989639282e-02 9.186933189630508423e-02 -1.796149462461471558e-02 -6.029963120818138123e-02 -1.194122657179832458e-01 -4.914662614464759827e-02 1.258224807679653168e-02 1.210524141788482666e-02 2.673863805830478668e-02 1.738843694329261780e-02 4.265479370951652527e-02 2.226924709975719452e-02
-6.482048332691192627e-02 1.093639954924583435e-01 7.294242084026336670e-02 -6.120477989315986633e-02 3.125832229852676392e-02 9.820802509784698486e-02 4.342692345380783081e-02 5.989725142717361450e-02 5.545252934098243713e-02 9.391067177057266235e-02 6.575634330511093140e-02 -3.958783671259880066e-02 -1.632266445085406303e-03 -1.587577909231185913e-02 5.827834364026784897e-03 -1.064243018627166748e-01 1.008234266191720963e-02 6.081015244126319885e-02 -6.444412749260663986e-03 4.236479476094245911e-02 -1.490130741149187088e-02 1.034424155950546265e-01 1.776492036879062653e-02 9.006713330745697021e-02 9.004038572311401367e-02 4.379587620496749878e-02 -5.201842263340950012e-02 5.400315299630165100e-02 -2.332429215312004089e-02 8.775167912244796753e-02 3.037213347852230072e-02 -1.209921110421419144e-02 7.999181002378463745e-02 -9.015858173370361328e-02 2.777810022234916687e-02 1.012477055191993713e-01 8.640969172120094299e-03 -4.985716566443443298e-02 4.325357824563980103e-02 -9.639113396406173706e-02 5.093199014663696289e-02 3.327379375696182251e-02 4.748909547924995422e-02 -3.479917347431182861e-02 8.946089446544647217e-02 -1.090922653675079346e-01 4.401220008730888367e-02 5.336531251668930054e-02 -7.820021361112594604e-02 1.529011037200689316e-02
-8.905903995037078857e-02 -2.684877254068851471e-02 -4.879096522927284241e-02 -4.582948982715606689e-02 -2.382630482316017151e-02 8.982808142900466919e-02 5.347452312707901001e-02 4.895746707916259766e-02 4.392343759536743164e-02 7.917027920484542847e-02 2.307267300784587860e-02 -9.061932563781738281e-02 -1.376726627349853516e-01 -3.281996026635169983e-02 -1.338882297277450562e-01 -1.418755110353231430e-02 3.026641719043254852e-02 5.086340382695198059e-02 -4.981413483619689941e-02 5.538386851549148560e-02 -4.189113527536392212e-02 -8.187271654605865479e-03 9.708159416913986206e-02 1.762409508228302002e-02 -3.017600625753402710e-02 6.318669021129608154e-02 -1.479766070842742920e-01 4.541156813502311707e-02 -5.589317530393600464e-02 8.071258664131164551e-02 -9.172034263610839844e-02 5.193305015563964844e-02 4.547465220093727112e-02 3.788234665989875793e-02 4.527969658374786377e-02 8.030455559492111206e-02 -6.747934222221374512e-02 -1.931563019752502441e-02 5.225808918476104736e-02 -8.509971201419830322e-02 6.007652729749679565e-02 -2.465466409921646118e-02 -9.254299849271774292e-02 -4.822820052504539490e-02 6.937935203313827515e-02 -1.004519611597061157e-01 6.924210488796234131e-02 4.642805084586143494e-02 -9.918262064456939697e-02 7.898493111133575439e-02
