1.017291620373725891e-01 -1.238254532217979431e-01 5.932692438364028931e-02 -1.961322128772735596e-02 4.491227492690086365e-02 -5.100822448730468750e-02 1.155110821127891541e-01 1.273226588964462280e-01 -9.760132431983947754e-02 -3.388597443699836731e-02 1.275333762168884277e-01 -7.927244901657104492e-02 1.184296533465385437e-01 6.703122705221176147e-02 1.206850260496139526e-01 1.868565753102302551e-02 9.507139027118682861e-02 -9.933935105800628662e-02 5.644738301634788513e-02 3.680763393640518188e-02 1.030720993876457214e-01 5.253868550062179565e-02 1.235537827014923096e-01 9.715417772531509399e-02 7.065889984369277954e-02 1.275685876607894897e-01 4.367154836654663086e-02 -8.385032415390014648e-02 7.412309944629669189e-02 4.900040104985237122e-02 -1.773252896964550018e-02 3.939803689718246460e-02 3.402505815029144287e-02 -1.295828968286514282e-01 1.126886084675788879e-01 -1.244853883981704712e-01 8.961691707372665405e-02 4.100274294614791870e-02 -4.672002792358398438e-02 3.366924822330474854e-02 -7.694685459136962891e-02 -2.703540772199630737e-02 -9.210283309221267700e-02 -2.591499313712120056e-02 9.156486392021179199e-02 -6.781069189310073853e-02 1.051041558384895325e-01 7.052057981491088867e-02 2.223563939332962036e-02 7.813303172588348389e-02
9.627609699964523315e-02 -2.921298891305923462e-02 5.416150018572807312e-02 -1.546732056885957718e-02 3.008222021162509918e-02 -9.433455020189285278e-02 -2.028124965727329254e-02 1.195970475673675537e-01 9.647160023450851440e-02 -2.433524280786514282e-02 1.023299545049667358e-01 8.607024699449539185e-02 1.074920818209648132e-01 -1.148261725902557373e-01 5.029426142573356628e-02 4.252240806818008423e-02 8.901699632406234741e-02 -1.040318310260772705e-01 5.323019623756408691e-02 4.423391073942184448e-02 -3.843469545245170593e-02 -9.771673381328582764e-02 1.241803169250488281e-01 1.136844828724861145e-01 -8.558134734630584717e-02 6.618199497461318970e-02 7.721034809947013855e-03 -1.039435341954231262e-01 6.571976840496063232e-02 -9.063045680522918701e-02 -4.406567662954330444e-02 1.794491522014141083e-02 4.419649019837379456e-02 -4.168535396456718445e-02 1.245058774948120117e-01 -2.149716205894947052e-02 8.681613951921463013e-02 -8.123949170112609863e-02 -6.119852513074874878e-02 -1.045198291540145874e-01 -9.831393510103225708e-02 9.944281727075576782e-02 1.006297618150711060e-01 5.870871245861053467e-02 9.563737362623214722e-02 -1.009725779294967651e-02 7.693594694137573242e-02 7.446776330471038818e-02 -3.597063198685646057e-02 1.028571873903274536e-01
1.149474382400512695e-01 -6.438677757978439331e-02 -5.437244847416877747e-02 3.884924575686454773e-02 7.009134441614151001e-02 -1.043407022953033447e-01 5.297422409057617188e-02 -1.034531518816947937e-01 -7.293541729450225830e-02 -8.689885586500167847e-02 -1.217115223407745361e-01 1.074746847152709961e-01 7.985037565231323242e-02 7.322669774293899536e-02 5.867379903793334961e-02 7.735658437013626099e-02 -1.016989648342132568e-01 -1.265205442905426025e-01 1.382868736982345581e-01 6.598123162984848022e-02 6.389897316694259644e-02 -1.094713509082794189e-01 -4.778510332107543945e-02 -5.470381304621696472e-02 -4.465392604470252991e-02 -9.438575059175491333e-02 1.230506077408790588e-01 -1.204007416963577271e-01 8.350554108619689941e-02 -1.172241643071174622e-01 8.096169680356979370e-02 -1.085500940680503845e-01 -1.279903799295425415e-01 6.443865597248077393e-02 -1.184601113200187683e-01 -6.792233884334564209e-02 1.126639023423194885e-01 1.103059127926826477e-01 5.560574308037757874e-02 8.035804331302642822e-02 -1.296198964118957520e-01 -6.021581962704658508e-02 7.214183360338211060e-02 1.144820824265480042e-01 -1.269384026527404785e-01 6.156159937381744385e-02 -1.315034329891204834e-01 -1.370538622140884399e-01 1.310578435659408569e-01 -1.216661334037780762e-01
1.085152029991149902e-01 -4.520539194345474243e-02 7.828480005264282227e-02 7.426247000694274902e-02 8.979486674070358276e-02 1.333002746105194092e-01 -7.824501395225524902e-02 1.244969591498374939e-01 -1.546839345246553421e-02 -3.557166084647178650e-02 6.081767752766609192e-02 -9.334152936935424805e-02 -4.276146367192268372e-02 -1.034993156790733337e-01 -1.886633038520812988e-02 -2.651571109890937805e-02 -7.780297100543975830e-02 7.700534164905548096e-02 4.961914196610450745e-02 2.965147234499454498e-02 4.006937146186828613e-02 -4.043142870068550110e-02 -1.094384863972663879e-01 -3.622162621468305588e-03 -1.170446947216987610e-01 1.496452838182449341e-01 -7.125496119260787964e-02 -9.876262396574020386e-02 -1.349307596683502197e-02 -8.643448352813720703e-02 7.243484258651733398e-02 -9.125654399394989014e-02 -3.202566131949424744e-02 1.313769966363906860e-01 -5.888010188937187195e-02 -1.337638199329376221e-01 -2.713725343346595764e-02 -8.807900547981262207e-02 -1.035514473915100098e-01 -1.205429658293724060e-01 9.000962227582931519e-02 -9.416132420301437378e-02 -5.381889268755912781e-02 -1.281004548072814941e-01 -8.245796710252761841e-02 6.308617442846298218e-02 -7.682939618825912476e-02 -7.596150785684585571e-02 -5.932351201772689819e-02 6.785567849874496460e-02
